digraph Tree {
node [shape=box, fontname="helvetica"] ;
edge [fontname="helvetica"] ;
0 [label="neuroticism <= 5.5\ngini = 0.716\nsamples = 218\nvalue = [16, 81, 11, 39, 71]"] ;
1 [label="extraversion <= 4.5\ngini = 0.706\nsamples = 132\nvalue = [7, 25, 11, 31, 58]"] ;
0 -> 1 [labeldistance=2.5, labelangle=45, headlabel="True"] ;
2 [label="openness <= 4.5\ngini = 0.703\nsamples = 50\nvalue = [2, 15, 6, 21, 6]"] ;
1 -> 2 ;
3 [label="Age <= 23.5\ngini = 0.277\nsamples = 19\nvalue = [0, 2, 0, 16, 1]"] ;
2 -> 3 ;
4 [label="Age <= 20.5\ngini = 0.124\nsamples = 15\nvalue = [0, 0, 0, 14, 1]"] ;
3 -> 4 ;
5 [label="gini = 0.0\nsamples = 11\nvalue = [0, 0, 0, 11, 0]"] ;
4 -> 5 ;
6 [label="neuroticism <= 3.5\ngini = 0.375\nsamples = 4\nvalue = [0, 0, 0, 3, 1]"] ;
4 -> 6 ;
7 [label="gini = 0.0\nsamples = 3\nvalue = [0, 0, 0, 3, 0]"] ;
6 -> 7 ;
8 [label="gini = 0.0\nsamples = 1\nvalue = [0, 0, 0, 0, 1]"] ;
6 -> 8 ;
9 [label="conscientiousness <= 5.5\ngini = 0.5\nsamples = 4\nvalue = [0, 2, 0, 2, 0]"] ;
3 -> 9 ;
10 [label="gini = 0.0\nsamples = 2\nvalue = [0, 2, 0, 0, 0]"] ;
9 -> 10 ;
11 [label="gini = 0.0\nsamples = 2\nvalue = [0, 0, 0, 2, 0]"] ;
9 -> 11 ;
12 [label="neuroticism <= 3.5\ngini = 0.73\nsamples = 31\nvalue = [2, 13, 6, 5, 5]"] ;
2 -> 12 ;
13 [label="Age <= 18.0\ngini = 0.704\nsamples = 14\nvalue = [0, 2, 5, 5, 2]"] ;
12 -> 13 ;
14 [label="gini = 0.0\nsamples = 2\nvalue = [0, 0, 0, 0, 2]"] ;
13 -> 14 ;
15 [label="openness <= 7.5\ngini = 0.625\nsamples = 12\nvalue = [0, 2, 5, 5, 0]"] ;
13 -> 15 ;
16 [label="Age <= 23.5\ngini = 0.5\nsamples = 10\nvalue = [0, 0, 5, 5, 0]"] ;
15 -> 16 ;
17 [label="openness <= 6.5\ngini = 0.408\nsamples = 7\nvalue = [0, 0, 2, 5, 0]"] ;
16 -> 17 ;
18 [label="gini = 0.0\nsamples = 5\nvalue = [0, 0, 0, 5, 0]"] ;
17 -> 18 ;
19 [label="gini = 0.0\nsamples = 2\nvalue = [0, 0, 2, 0, 0]"] ;
17 -> 19 ;
20 [label="gini = 0.0\nsamples = 3\nvalue = [0, 0, 3, 0, 0]"] ;
16 -> 20 ;
21 [label="gini = 0.0\nsamples = 2\nvalue = [0, 2, 0, 0, 0]"] ;
15 -> 21 ;
22 [label="conscientiousness <= 6.5\ngini = 0.533\nsamples = 17\nvalue = [2, 11, 1, 0, 3]"] ;
12 -> 22 ;
23 [label="agreeableness <= 6.5\ngini = 0.357\nsamples = 14\nvalue = [2, 11, 1, 0, 0]"] ;
22 -> 23 ;
24 [label="openness <= 5.5\ngini = 0.165\nsamples = 11\nvalue = [0, 10, 1, 0, 0]"] ;
23 -> 24 ;
25 [label="extraversion <= 3.5\ngini = 0.375\nsamples = 4\nvalue = [0, 3, 1, 0, 0]"] ;
24 -> 25 ;
26 [label="gini = 0.0\nsamples = 1\nvalue = [0, 0, 1, 0, 0]"] ;
25 -> 26 ;
27 [label="gini = 0.0\nsamples = 3\nvalue = [0, 3, 0, 0, 0]"] ;
25 -> 27 ;
28 [label="gini = 0.0\nsamples = 7\nvalue = [0, 7, 0, 0, 0]"] ;
24 -> 28 ;
29 [label="conscientiousness <= 5.5\ngini = 0.444\nsamples = 3\nvalue = [2, 1, 0, 0, 0]"] ;
23 -> 29 ;
30 [label="gini = 0.0\nsamples = 1\nvalue = [0, 1, 0, 0, 0]"] ;
29 -> 30 ;
31 [label="gini = 0.0\nsamples = 2\nvalue = [2, 0, 0, 0, 0]"] ;
29 -> 31 ;
32 [label="gini = 0.0\nsamples = 3\nvalue = [0, 0, 0, 0, 3]"] ;
22 -> 32 ;
33 [label="conscientiousness <= 5.5\ngini = 0.561\nsamples = 82\nvalue = [5, 10, 5, 10, 52]"] ;
1 -> 33 ;
34 [label="Age <= 18.5\ngini = 0.676\nsamples = 48\nvalue = [5, 6, 3, 10, 24]"] ;
33 -> 34 ;
35 [label="agreeableness <= 5.5\ngini = 0.627\nsamples = 13\nvalue = [0, 1, 2, 7, 3]"] ;
34 -> 35 ;
36 [label="conscientiousness <= 2.5\ngini = 0.46\nsamples = 10\nvalue = [0, 1, 2, 7, 0]"] ;
35 -> 36 ;
37 [label="openness <= 2.5\ngini = 0.444\nsamples = 3\nvalue = [0, 1, 2, 0, 0]"] ;
36 -> 37 ;
38 [label="gini = 0.0\nsamples = 2\nvalue = [0, 0, 2, 0, 0]"] ;
37 -> 38 ;
39 [label="gini = 0.0\nsamples = 1\nvalue = [0, 1, 0, 0, 0]"] ;
37 -> 39 ;
40 [label="gini = 0.0\nsamples = 7\nvalue = [0, 0, 0, 7, 0]"] ;
36 -> 40 ;
41 [label="gini = 0.0\nsamples = 3\nvalue = [0, 0, 0, 0, 3]"] ;
35 -> 41 ;
42 [label="neuroticism <= 4.5\ngini = 0.591\nsamples = 35\nvalue = [5, 5, 1, 3, 21]"] ;
34 -> 42 ;
43 [label="Age <= 21.5\ngini = 0.413\nsamples = 24\nvalue = [3, 1, 0, 2, 18]"] ;
42 -> 43 ;
44 [label="gini = 0.0\nsamples = 11\nvalue = [0, 0, 0, 0, 11]"] ;
43 -> 44 ;
45 [label="neuroticism <= 1.5\ngini = 0.627\nsamples = 13\nvalue = [3, 1, 0, 2, 7]"] ;
43 -> 45 ;
46 [label="gini = 0.0\nsamples = 2\nvalue = [2, 0, 0, 0, 0]"] ;
45 -> 46 ;
47 [label="openness <= 6.5\ngini = 0.545\nsamples = 11\nvalue = [1, 1, 0, 2, 7]"] ;
45 -> 47 ;
48 [label="conscientiousness <= 3.5\ngini = 0.37\nsamples = 9\nvalue = [1, 0, 0, 1, 7]"] ;
47 -> 48 ;
49 [label="conscientiousness <= 1.5\ngini = 0.56\nsamples = 5\nvalue = [1, 0, 0, 1, 3]"] ;
48 -> 49 ;
50 [label="gini = 0.0\nsamples = 3\nvalue = [0, 0, 0, 0, 3]"] ;
49 -> 50 ;
51 [label="Age <= 23.5\ngini = 0.5\nsamples = 2\nvalue = [1, 0, 0, 1, 0]"] ;
49 -> 51 ;
52 [label="gini = 0.0\nsamples = 1\nvalue = [0, 0, 0, 1, 0]"] ;
51 -> 52 ;
53 [label="gini = 0.0\nsamples = 1\nvalue = [1, 0, 0, 0, 0]"] ;
51 -> 53 ;
54 [label="gini = 0.0\nsamples = 4\nvalue = [0, 0, 0, 0, 4]"] ;
48 -> 54 ;
55 [label="conscientiousness <= 3.5\ngini = 0.5\nsamples = 2\nvalue = [0, 1, 0, 1, 0]"] ;
47 -> 55 ;
56 [label="gini = 0.0\nsamples = 1\nvalue = [0, 1, 0, 0, 0]"] ;
55 -> 56 ;
57 [label="gini = 0.0\nsamples = 1\nvalue = [0, 0, 0, 1, 0]"] ;
55 -> 57 ;
58 [label="agreeableness <= 6.0\ngini = 0.744\nsamples = 11\nvalue = [2, 4, 1, 1, 3]"] ;
42 -> 58 ;
59 [label="openness <= 6.5\ngini = 0.75\nsamples = 8\nvalue = [2, 1, 1, 1, 3]"] ;
58 -> 59 ;
60 [label="openness <= 5.5\ngini = 0.667\nsamples = 6\nvalue = [0, 1, 1, 1, 3]"] ;
59 -> 60 ;
61 [label="openness <= 3.5\ngini = 0.56\nsamples = 5\nvalue = [0, 0, 1, 1, 3]"] ;
60 -> 61 ;
62 [label="gini = 0.0\nsamples = 2\nvalue = [0, 0, 0, 0, 2]"] ;
61 -> 62 ;
63 [label="Age <= 19.5\ngini = 0.667\nsamples = 3\nvalue = [0, 0, 1, 1, 1]"] ;
61 -> 63 ;
64 [label="gini = 0.0\nsamples = 1\nvalue = [0, 0, 0, 0, 1]"] ;
63 -> 64 ;
65 [label="extraversion <= 5.5\ngini = 0.5\nsamples = 2\nvalue = [0, 0, 1, 1, 0]"] ;
63 -> 65 ;
66 [label="gini = 0.0\nsamples = 1\nvalue = [0, 0, 1, 0, 0]"] ;
65 -> 66 ;
67 [label="gini = 0.0\nsamples = 1\nvalue = [0, 0, 0, 1, 0]"] ;
65 -> 67 ;
68 [label="gini = 0.0\nsamples = 1\nvalue = [0, 1, 0, 0, 0]"] ;
60 -> 68 ;
69 [label="gini = 0.0\nsamples = 2\nvalue = [2, 0, 0, 0, 0]"] ;
59 -> 69 ;
70 [label="gini = 0.0\nsamples = 3\nvalue = [0, 3, 0, 0, 0]"] ;
58 -> 70 ;
71 [label="openness <= 6.5\ngini = 0.304\nsamples = 34\nvalue = [0, 4, 2, 0, 28]"] ;
33 -> 71 ;
72 [label="openness <= 1.5\ngini = 0.219\nsamples = 32\nvalue = [0, 4, 0, 0, 28]"] ;
71 -> 72 ;
73 [label="gini = 0.0\nsamples = 2\nvalue = [0, 2, 0, 0, 0]"] ;
72 -> 73 ;
74 [label="Age <= 17.5\ngini = 0.124\nsamples = 30\nvalue = [0, 2, 0, 0, 28]"] ;
72 -> 74 ;
75 [label="extraversion <= 5.5\ngini = 0.5\nsamples = 4\nvalue = [0, 2, 0, 0, 2]"] ;
74 -> 75 ;
76 [label="gini = 0.0\nsamples = 2\nvalue = [0, 2, 0, 0, 0]"] ;
75 -> 76 ;
77 [label="gini = 0.0\nsamples = 2\nvalue = [0, 0, 0, 0, 2]"] ;
75 -> 77 ;
78 [label="gini = 0.0\nsamples = 26\nvalue = [0, 0, 0, 0, 26]"] ;
74 -> 78 ;
79 [label="gini = 0.0\nsamples = 2\nvalue = [0, 0, 2, 0, 0]"] ;
71 -> 79 ;
80 [label="conscientiousness <= 6.5\ngini = 0.534\nsamples = 86\nvalue = [9, 56, 0, 8, 13]"] ;
0 -> 80 [labeldistance=2.5, labelangle=-45, headlabel="False"] ;
81 [label="agreeableness <= 1.5\ngini = 0.414\nsamples = 68\nvalue = [3, 51, 0, 6, 8]"] ;
80 -> 81 ;
82 [label="gini = 0.0\nsamples = 2\nvalue = [0, 0, 0, 0, 2]"] ;
81 -> 82 ;
83 [label="neuroticism <= 6.5\ngini = 0.384\nsamples = 66\nvalue = [3, 51, 0, 6, 6]"] ;
81 -> 83 ;
84 [label="extraversion <= 6.5\ngini = 0.496\nsamples = 44\nvalue = [2, 30, 0, 6, 6]"] ;
83 -> 84 ;
85 [label="agreeableness <= 5.5\ngini = 0.427\nsamples = 38\nvalue = [2, 28, 0, 6, 2]"] ;
84 -> 85 ;
86 [label="conscientiousness <= 5.5\ngini = 0.556\nsamples = 26\nvalue = [2, 16, 0, 6, 2]"] ;
85 -> 86 ;
87 [label="Age <= 20.5\ngini = 0.394\nsamples = 17\nvalue = [1, 13, 0, 1, 2]"] ;
86 -> 87 ;
88 [label="conscientiousness <= 1.5\ngini = 0.272\nsamples = 13\nvalue = [1, 11, 0, 1, 0]"] ;
87 -> 88 ;
89 [label="gini = 0.0\nsamples = 1\nvalue = [0, 0, 0, 1, 0]"] ;
88 -> 89 ;
90 [label="extraversion <= 4.5\ngini = 0.153\nsamples = 12\nvalue = [1, 11, 0, 0, 0]"] ;
88 -> 90 ;
91 [label="openness <= 5.5\ngini = 0.32\nsamples = 5\nvalue = [1, 4, 0, 0, 0]"] ;
90 -> 91 ;
92 [label="gini = 0.0\nsamples = 4\nvalue = [0, 4, 0, 0, 0]"] ;
91 -> 92 ;
93 [label="gini = 0.0\nsamples = 1\nvalue = [1, 0, 0, 0, 0]"] ;
91 -> 93 ;
94 [label="gini = 0.0\nsamples = 7\nvalue = [0, 7, 0, 0, 0]"] ;
90 -> 94 ;
95 [label="agreeableness <= 3.5\ngini = 0.5\nsamples = 4\nvalue = [0, 2, 0, 0, 2]"] ;
87 -> 95 ;
96 [label="gini = 0.0\nsamples = 2\nvalue = [0, 2, 0, 0, 0]"] ;
95 -> 96 ;
97 [label="gini = 0.0\nsamples = 2\nvalue = [0, 0, 0, 0, 2]"] ;
95 -> 97 ;
98 [label="agreeableness <= 4.5\ngini = 0.568\nsamples = 9\nvalue = [1, 3, 0, 5, 0]"] ;
86 -> 98 ;
99 [label="Age <= 24.0\ngini = 0.449\nsamples = 7\nvalue = [1, 1, 0, 5, 0]"] ;
98 -> 99 ;
100 [label="agreeableness <= 2.5\ngini = 0.278\nsamples = 6\nvalue = [0, 1, 0, 5, 0]"] ;
99 -> 100 ;
101 [label="gini = 0.0\nsamples = 3\nvalue = [0, 0, 0, 3, 0]"] ;
100 -> 101 ;
102 [label="agreeableness <= 3.5\ngini = 0.444\nsamples = 3\nvalue = [0, 1, 0, 2, 0]"] ;
100 -> 102 ;
103 [label="gini = 0.0\nsamples = 1\nvalue = [0, 1, 0, 0, 0]"] ;
102 -> 103 ;
104 [label="gini = 0.0\nsamples = 2\nvalue = [0, 0, 0, 2, 0]"] ;
102 -> 104 ;
105 [label="gini = 0.0\nsamples = 1\nvalue = [1, 0, 0, 0, 0]"] ;
99 -> 105 ;
106 [label="gini = 0.0\nsamples = 2\nvalue = [0, 2, 0, 0, 0]"] ;
98 -> 106 ;
107 [label="gini = 0.0\nsamples = 12\nvalue = [0, 12, 0, 0, 0]"] ;
85 -> 107 ;
108 [label="Age <= 19.5\ngini = 0.444\nsamples = 6\nvalue = [0, 2, 0, 0, 4]"] ;
84 -> 108 ;
109 [label="gini = 0.0\nsamples = 4\nvalue = [0, 0, 0, 0, 4]"] ;
108 -> 109 ;
110 [label="gini = 0.0\nsamples = 2\nvalue = [0, 2, 0, 0, 0]"] ;
108 -> 110 ;
111 [label="Age <= 24.0\ngini = 0.087\nsamples = 22\nvalue = [1, 21, 0, 0, 0]"] ;
83 -> 111 ;
112 [label="gini = 0.0\nsamples = 21\nvalue = [0, 21, 0, 0, 0]"] ;
111 -> 112 ;
113 [label="gini = 0.0\nsamples = 1\nvalue = [1, 0, 0, 0, 0]"] ;
111 -> 113 ;
114 [label="openness <= 5.5\ngini = 0.722\nsamples = 18\nvalue = [6, 5, 0, 2, 5]"] ;
80 -> 114 ;
115 [label="neuroticism <= 6.5\ngini = 0.639\nsamples = 12\nvalue = [1, 5, 0, 1, 5]"] ;
114 -> 115 ;
116 [label="openness <= 4.5\ngini = 0.449\nsamples = 7\nvalue = [1, 0, 0, 1, 5]"] ;
115 -> 116 ;
117 [label="gini = 0.0\nsamples = 5\nvalue = [0, 0, 0, 0, 5]"] ;
116 -> 117 ;
118 [label="extraversion <= 5.0\ngini = 0.5\nsamples = 2\nvalue = [1, 0, 0, 1, 0]"] ;
116 -> 118 ;
119 [label="gini = 0.0\nsamples = 1\nvalue = [0, 0, 0, 1, 0]"] ;
118 -> 119 ;
120 [label="gini = 0.0\nsamples = 1\nvalue = [1, 0, 0, 0, 0]"] ;
118 -> 120 ;
121 [label="gini = 0.0\nsamples = 5\nvalue = [0, 5, 0, 0, 0]"] ;
115 -> 121 ;
122 [label="extraversion <= 3.0\ngini = 0.278\nsamples = 6\nvalue = [5, 0, 0, 1, 0]"] ;
114 -> 122 ;
123 [label="gini = 0.0\nsamples = 1\nvalue = [0, 0, 0, 1, 0]"] ;
122 -> 123 ;
124 [label="gini = 0.0\nsamples = 5\nvalue = [5, 0, 0, 0, 0]"] ;
122 -> 124 ;
}